digraph Tree {
node [shape=box, style="filled, rounded", color="black", fontname=helvetica] ;
edge [fontname=helvetica] ;
0 [label="model_Insignia <= 0.5\nmse = 706.64\nsamples = 7032\nvalue = 88.62", fillcolor="#fbebe0"] ;
1 [label="model_Espace <= 0.5\nmse = 621.46\nsamples = 5850\nvalue = 83.21", fillcolor="#fceee5"] ;
0 -> 1 [labeldistance=2.5, labelangle=45, headlabel="True"] ;
2 [label="model_Corsa <= 0.5\nmse = 459.61\nsamples = 5434\nvalue = 79.74", fillcolor="#fcf0e8"] ;
1 -> 2 ;
3 [label="gearing_type_Manual <= 0.5\nmse = 447.96\nsamples = 4469\nvalue = 83.89", fillcolor="#fbeee4"] ;
2 -> 3 ;
4 [label="make_Audi <= 0.5\nmse = 560.55\nsamples = 2036\nvalue = 93.43", fillcolor="#fae9dc"] ;
3 -> 4 ;
5 [label="fuel_diesel <= 0.5\nmse = 559.64\nsamples = 753\nvalue = 102.55", fillcolor="#f9e4d5"] ;
4 -> 5 ;
6 [label="body_Sedans <= 0.5\nmse = 572.74\nsamples = 509\nvalue = 109.32", fillcolor="#f9e1cf"] ;
5 -> 6 ;
7 [label="model_Astra <= 0.5\nmse = 402.14\nsamples = 254\nvalue = 105.98", fillcolor="#f9e2d2"] ;
6 -> 7 ;
8 [label="gearing_type_Semi-automatic <= 0.5\nmse = 619.41\nsamples = 90\nvalue = 97.15", fillcolor="#fae7d9"] ;
7 -> 8 ;
9 [label="body_Coupe <= 0.5\nmse = 538.87\nsamples = 89\nvalue = 95.73", fillcolor="#fae8db"] ;
8 -> 9 ;
10 [label="body_Compact <= 0.5\nmse = 507.33\nsamples = 88\nvalue = 94.97", fillcolor="#fae8db"] ;
9 -> 10 ;
11 [label="body_Station wagon <= 0.5\nmse = 0.23\nsamples = 29\nvalue = 87.36", fillcolor="#fbece1"] ;
10 -> 11 ;
12 [label="mse = 0.0\nsamples = 5\nvalue = 87.0", fillcolor="#fbece2"] ;
11 -> 12 ;
13 [label="nr_of_doors <= 4.5\nmse = 0.25\nsamples = 24\nvalue = 87.44", fillcolor="#fbece1"] ;
11 -> 13 ;
14 [label="mse = 0.24\nsamples = 4\nvalue = 87.4", fillcolor="#fbece1"] ;
13 -> 14 ;
15 [label="mse = 0.25\nsamples = 20\nvalue = 87.45", fillcolor="#fbece1"] ;
13 -> 15 ;
16 [label="nr_of_doors <= 4.5\nmse = 698.35\nsamples = 59\nvalue = 98.41", fillcolor="#fae6d8"] ;
10 -> 16 ;
17 [label="mse = 705.64\nsamples = 21\nvalue = 98.68", fillcolor="#fae6d8"] ;
16 -> 17 ;
18 [label="mse = 694.65\nsamples = 38\nvalue = 98.27", fillcolor="#fae6d8"] ;
16 -> 18 ;
19 [label="mse = 0.0\nsamples = 1\nvalue = 147.0", fillcolor="#f5cdb1"] ;
9 -> 19 ;
20 [label="mse = 0.0\nsamples = 1\nvalue = 162.0", fillcolor="#f3c5a5"] ;
8 -> 20 ;
21 [label="gearing_type_Semi-automatic <= 0.5\nmse = 232.31\nsamples = 164\nvalue = 110.46", fillcolor="#f9e0cf"] ;
7 -> 21 ;
22 [label="nr_of_doors <= 4.5\nmse = 217.7\nsamples = 159\nvalue = 111.09", fillcolor="#f9e0ce"] ;
21 -> 22 ;
23 [label="nr_of_seats <= 4.5\nmse = 216.38\nsamples = 37\nvalue = 112.7", fillcolor="#f8dfcd"] ;
22 -> 23 ;
24 [label="mse = 0.0\nsamples = 1\nvalue = 103.0", fillcolor="#f9e4d5"] ;
23 -> 24 ;
25 [label="mse = 218.1\nsamples = 36\nvalue = 112.84", fillcolor="#f8dfcd"] ;
23 -> 25 ;
26 [label="body_Compact <= 0.5\nmse = 216.91\nsamples = 122\nvalue = 110.51", fillcolor="#f9e0cf"] ;
22 -> 26 ;
27 [label="body_Station wagon <= 0.5\nmse = 221.35\nsamples = 115\nvalue = 110.34", fillcolor="#f9e0cf"] ;
26 -> 27 ;
28 [label="mse = 0.0\nsamples = 1\nvalue = 110.0", fillcolor="#f9e0cf"] ;
27 -> 28 ;
29 [label="mse = 224.96\nsamples = 114\nvalue = 110.35", fillcolor="#f9e0cf"] ;
27 -> 29 ;
30 [label="mse = 123.21\nsamples = 7\nvalue = 113.7", fillcolor="#f8decc"] ;
26 -> 30 ;
31 [label="body_Station wagon <= 0.5\nmse = 258.44\nsamples = 5\nvalue = 89.25", fillcolor="#fbebe0"] ;
21 -> 31 ;
32 [label="mse = 0.22\nsamples = 2\nvalue = 76.67", fillcolor="#fcf2ea"] ;
31 -> 32 ;
33 [label="mse = 261.36\nsamples = 3\nvalue = 96.8", fillcolor="#fae7da"] ;
31 -> 33 ;
34 [label="model_Clio <= 0.5\nmse = 732.81\nsamples = 255\nvalue = 112.94", fillcolor="#f8dfcd"] ;
6 -> 34 ;
35 [label="gearing_type_Automatic <= 0.5\nmse = 261.5\nsamples = 167\nvalue = 105.85", fillcolor="#f9e3d2"] ;
34 -> 35 ;
36 [label="nr_of_doors <= 4.5\nmse = 20.25\nsamples = 7\nvalue = 78.5", fillcolor="#fcf1e9"] ;
35 -> 36 ;
37 [label="mse = 0.0\nsamples = 1\nvalue = 77.0", fillcolor="#fcf2ea"] ;
36 -> 37 ;
38 [label="mse = 22.22\nsamples = 6\nvalue = 78.67", fillcolor="#fcf1e8"] ;
36 -> 38 ;
39 [label="nr_of_doors <= 4.5\nmse = 239.76\nsamples = 160\nvalue = 106.96", fillcolor="#f9e2d1"] ;
35 -> 39 ;
40 [label="mse = 194.85\nsamples = 59\nvalue = 108.54", fillcolor="#f9e1d0"] ;
39 -> 40 ;
41 [label="mse = 263.23\nsamples = 101\nvalue = 106.05", fillcolor="#f9e2d2"] ;
39 -> 41 ;
42 [label="gearing_type_Semi-automatic <= 0.5\nmse = 1382.43\nsamples = 88\nvalue = 127.4", fillcolor="#f7d7c1"] ;
34 -> 42 ;
43 [label="nr_of_doors <= 4.5\nmse = 1388.71\nsamples = 78\nvalue = 123.76", fillcolor="#f7d9c4"] ;
42 -> 43 ;
44 [label="mse = 1008.71\nsamples = 15\nvalue = 147.26", fillcolor="#f5cdb1"] ;
43 -> 44 ;
45 [label="nr_of_seats <= 4.5\nmse = 1309.93\nsamples = 63\nvalue = 117.82", fillcolor="#f8dcc9"] ;
43 -> 45 ;
46 [label="mse = 0.0\nsamples = 2\nvalue = 162.0", fillcolor="#f3c5a5"] ;
45 -> 46 ;
47 [label="mse = 1294.52\nsamples = 61\nvalue = 116.83", fillcolor="#f8ddc9"] ;
45 -> 47 ;
48 [label="mse = 0.0\nsamples = 10\nvalue = 162.0", fillcolor="#f3c5a5"] ;
42 -> 48 ;
49 [label="make_Renault <= 0.5\nmse = 251.86\nsamples = 244\nvalue = 88.83", fillcolor="#fbebe0"] ;
5 -> 49 ;
50 [label="body_Sedans <= 0.5\nmse = 1.38\nsamples = 165\nvalue = 99.94", fillcolor="#fae6d7"] ;
49 -> 50 ;
51 [label="nr_of_doors <= 4.5\nmse = 0.0\nsamples = 130\nvalue = 100.0", fillcolor="#fae6d7"] ;
50 -> 51 ;
52 [label="mse = 0.0\nsamples = 32\nvalue = 100.0", fillcolor="#fae6d7"] ;
51 -> 52 ;
53 [label="body_Station wagon <= 0.5\nmse = 0.01\nsamples = 98\nvalue = 100.01", fillcolor="#fae6d7"] ;
51 -> 53 ;
54 [label="mse = 0.0\nsamples = 5\nvalue = 100.0", fillcolor="#fae6d7"] ;
53 -> 54 ;
55 [label="mse = 0.01\nsamples = 93\nvalue = 100.01", fillcolor="#fae6d7"] ;
53 -> 55 ;
56 [label="nr_of_doors <= 4.5\nmse = 7.18\nsamples = 35\nvalue = 99.68", fillcolor="#fae6d7"] ;
50 -> 56 ;
57 [label="mse = 0.0\nsamples = 4\nvalue = 100.0", fillcolor="#fae6d7"] ;
56 -> 57 ;
58 [label="mse = 7.96\nsamples = 31\nvalue = 99.64", fillcolor="#fae6d7"] ;
56 -> 58 ;
59 [label="body_Compact <= 0.5\nmse = 8.68\nsamples = 79\nvalue = 66.51", fillcolor="#fdf7f2"] ;
49 -> 59 ;
60 [label="gearing_type_Automatic <= 0.5\nmse = 0.13\nsamples = 75\nvalue = 66.16", fillcolor="#fdf7f3"] ;
59 -> 60 ;
61 [label="mse = 0.0\nsamples = 7\nvalue = 66.0", fillcolor="#fdf7f3"] ;
60 -> 61 ;
62 [label="nr_of_doors <= 4.5\nmse = 0.14\nsamples = 68\nvalue = 66.17", fillcolor="#fdf7f3"] ;
60 -> 62 ;
63 [label="mse = 0.0\nsamples = 2\nvalue = 66.0", fillcolor="#fdf7f3"] ;
62 -> 63 ;
64 [label="nr_of_seats <= 3.5\nmse = 0.14\nsamples = 66\nvalue = 66.17", fillcolor="#fdf7f3"] ;
62 -> 64 ;
65 [label="mse = 0.0\nsamples = 1\nvalue = 66.0", fillcolor="#fdf7f3"] ;
64 -> 65 ;
66 [label="body_Station wagon <= 0.5\nmse = 0.15\nsamples = 65\nvalue = 66.18", fillcolor="#fdf7f3"] ;
64 -> 66 ;
67 [label="mse = 0.14\nsamples = 39\nvalue = 66.16", fillcolor="#fdf7f3"] ;
66 -> 67 ;
68 [label="mse = 0.16\nsamples = 26\nvalue = 66.2", fillcolor="#fdf7f3"] ;
66 -> 68 ;
69 [label="nr_of_doors <= 4.5\nmse = 99.56\nsamples = 4\nvalue = 71.33", fillcolor="#fdf4ee"] ;
59 -> 69 ;
70 [label="mse = 0.0\nsamples = 3\nvalue = 66.0", fillcolor="#fdf7f3"] ;
69 -> 70 ;
71 [label="mse = 0.0\nsamples = 1\nvalue = 90.0", fillcolor="#fbebdf"] ;
69 -> 71 ;
72 [label="gearing_type_Automatic <= 0.5\nmse = 483.96\nsamples = 1283\nvalue = 88.1", fillcolor="#fbece1"] ;
4 -> 72 ;
73 [label="fuel_gasoline <= 0.5\nmse = 2704.55\nsamples = 147\nvalue = 104.91", fillcolor="#f9e3d3"] ;
72 -> 73 ;
74 [label="model_A3 <= 0.5\nmse = 294.27\nsamples = 112\nvalue = 93.15", fillcolor="#fae9dd"] ;
73 -> 74 ;
75 [label="nr_of_seats <= 4.5\nmse = 72.42\nsamples = 12\nvalue = 71.28", fillcolor="#fdf4ee"] ;
74 -> 75 ;
76 [label="mse = 76.9\nsamples = 9\nvalue = 71.85", fillcolor="#fdf4ee"] ;
75 -> 76 ;
77 [label="mse = 57.76\nsamples = 3\nvalue = 69.8", fillcolor="#fdf5f0"] ;
75 -> 77 ;
78 [label="fuel_lpg <= 0.5\nmse = 257.74\nsamples = 100\nvalue = 95.71", fillcolor="#fae8db"] ;
74 -> 78 ;
79 [label="body_Sedans <= 0.5\nmse = 264.42\nsamples = 92\nvalue = 96.31", fillcolor="#fae8da"] ;
78 -> 79 ;
80 [label="mse = 0.0\nsamples = 2\nvalue = 110.0", fillcolor="#f9e0cf"] ;
79 -> 80 ;
81 [label="fuel_diesel <= 0.5\nmse = 265.96\nsamples = 90\nvalue = 96.02", fillcolor="#fae8da"] ;
79 -> 81 ;
82 [label="mse = 0.0\nsamples = 1\nvalue = 110.0", fillcolor="#f9e0cf"] ;
81 -> 82 ;
83 [label="nr_of_doors <= 3.5\nmse = 267.4\nsamples = 89\nvalue = 95.72", fillcolor="#fae8db"] ;
81 -> 83 ;
84 [label="mse = 0.0\nsamples = 1\nvalue = 81.0", fillcolor="#fcefe7"] ;
83 -> 84 ;
85 [label="nr_of_doors <= 4.5\nmse = 267.75\nsamples = 88\nvalue = 95.83", fillcolor="#fae8da"] ;
83 -> 85 ;
86 [label="mse = 198.33\nsamples = 6\nvalue = 97.18", fillcolor="#fae7d9"] ;
85 -> 86 ;
87 [label="mse = 273.59\nsamples = 82\nvalue = 95.71", fillcolor="#fae8db"] ;
85 -> 87 ;
88 [label="mse = 50.0\nsamples = 8\nvalue = 86.0", fillcolor="#fbede2"] ;
78 -> 88 ;
89 [label="model_A1 <= 0.5\nmse = 8458.26\nsamples = 35\nvalue = 141.67", fillcolor="#f5d0b5"] ;
73 -> 89 ;
90 [label="body_Compact <= 0.5\nmse = 9743.47\nsamples = 21\nvalue = 189.42", fillcolor="#f0b78e"] ;
89 -> 90 ;
91 [label="body_Station wagon <= 0.5\nmse = 6783.0\nsamples = 14\nvalue = 244.94", fillcolor="#ea9a61"] ;
90 -> 91 ;
92 [label="nr_of_doors <= 4.5\nmse = 7047.11\nsamples = 13\nvalue = 241.88", fillcolor="#eb9c63"] ;
91 -> 92 ;
93 [label="mse = 7523.56\nsamples = 2\nvalue = 232.67", fillcolor="#eca16b"] ;
92 -> 93 ;
94 [label="mse = 6913.08\nsamples = 11\nvalue = 244.0", fillcolor="#ea9b62"] ;
92 -> 94 ;
95 [label="mse = 0.0\nsamples = 1\nvalue = 294.0", fillcolor="#e58139"] ;
91 -> 95 ;
96 [label="mse = 5049.71\nsamples = 7\nvalue = 122.0", fillcolor="#f7dac5"] ;
90 -> 96 ;
97 [label="nr_of_seats <= 4.5\nmse = 50.0\nsamples = 14\nvalue = 80.0", fillcolor="#fcf0e7"] ;
89 -> 97 ;
98 [label="mse = 0.0\nsamples = 3\nvalue = 70.0", fillcolor="#fdf5f0"] ;
97 -> 98 ;
99 [label="body_Compact <= 0.5\nmse = 36.0\nsamples = 11\nvalue = 82.0", fillcolor="#fcefe6"] ;
97 -> 99 ;
100 [label="mse = 14.0\nsamples = 9\nvalue = 84.0", fillcolor="#fbeee4"] ;
99 -> 100 ;
101 [label="mse = 54.0\nsamples = 2\nvalue = 76.0", fillcolor="#fcf2eb"] ;
99 -> 101 ;
102 [label="model_A3 <= 0.5\nmse = 165.75\nsamples = 1136\nvalue = 85.99", fillcolor="#fbede2"] ;
72 -> 102 ;
103 [label="fuel_gasoline <= 0.5\nmse = 194.11\nsamples = 538\nvalue = 82.45", fillcolor="#fcefe5"] ;
102 -> 103 ;
104 [label="body_Compact <= 0.5\nmse = 86.56\nsamples = 131\nvalue = 77.03", fillcolor="#fcf2ea"] ;
103 -> 104 ;
105 [label="nr_of_seats <= 4.5\nmse = 78.13\nsamples = 99\nvalue = 78.7", fillcolor="#fcf1e8"] ;
104 -> 105 ;
106 [label="nr_of_doors <= 2.5\nmse = 87.73\nsamples = 55\nvalue = 76.62", fillcolor="#fcf2ea"] ;
105 -> 106 ;
107 [label="mse = 0.0\nsamples = 1\nvalue = 66.0", fillcolor="#fdf7f3"] ;
106 -> 107 ;
108 [label="nr_of_doors <= 3.5\nmse = 87.36\nsamples = 54\nvalue = 76.77", fillcolor="#fcf2ea"] ;
106 -> 108 ;
109 [label="mse = 74.95\nsamples = 10\nvalue = 79.23", fillcolor="#fcf0e8"] ;
108 -> 109 ;
110 [label="nr_of_doors <= 4.5\nmse = 88.48\nsamples = 44\nvalue = 76.22", fillcolor="#fcf2ea"] ;
108 -> 110 ;
111 [label="mse = 90.25\nsamples = 3\nvalue = 75.5", fillcolor="#fcf2eb"] ;
110 -> 111 ;
112 [label="mse = 88.31\nsamples = 41\nvalue = 76.28", fillcolor="#fcf2ea"] ;
110 -> 112 ;
113 [label="nr_of_doors <= 4.5\nmse = 59.28\nsamples = 44\nvalue = 80.83", fillcolor="#fcf0e7"] ;
105 -> 113 ;
114 [label="body_Sedans <= 0.5\nmse = 47.59\nsamples = 21\nvalue = 82.03", fillcolor="#fcefe6"] ;
113 -> 114 ;
115 [label="mse = 0.0\nsamples = 1\nvalue = 85.0", fillcolor="#fbede3"] ;
114 -> 115 ;
116 [label="mse = 48.83\nsamples = 20\nvalue = 81.94", fillcolor="#fcefe6"] ;
114 -> 116 ;
117 [label="mse = 66.89\nsamples = 23\nvalue = 79.82", fillcolor="#fcf0e8"] ;
113 -> 117 ;
118 [label="nr_of_seats <= 4.5\nmse = 82.88\nsamples = 32\nvalue = 72.79", fillcolor="#fdf4ed"] ;
104 -> 118 ;
119 [label="nr_of_doors <= 4.5\nmse = 89.85\nsamples = 16\nvalue = 76.13", fillcolor="#fcf2eb"] ;
118 -> 119 ;
120 [label="nr_of_doors <= 3.5\nmse = 83.54\nsamples = 6\nvalue = 78.09", fillcolor="#fcf1e9"] ;
119 -> 120 ;
121 [label="mse = 90.25\nsamples = 4\nvalue = 75.5", fillcolor="#fcf2eb"] ;
120 -> 121 ;
122 [label="mse = 57.76\nsamples = 2\nvalue = 81.2", fillcolor="#fcefe6"] ;
120 -> 122 ;
123 [label="mse = 90.0\nsamples = 10\nvalue = 75.0", fillcolor="#fcf3eb"] ;
119 -> 123 ;
124 [label="nr_of_doors <= 4.5\nmse = 46.99\nsamples = 16\nvalue = 68.92", fillcolor="#fdf6f0"] ;
118 -> 124 ;
125 [label="mse = 0.0\nsamples = 13\nvalue = 66.0", fillcolor="#fdf7f3"] ;
124 -> 125 ;
126 [label="mse = 80.22\nsamples = 3\nvalue = 78.67", fillcolor="#fcf1e8"] ;
124 -> 126 ;
127 [label="nr_of_seats <= 3.5\nmse = 215.09\nsamples = 407\nvalue = 84.09", fillcolor="#fbeee4"] ;
103 -> 127 ;
128 [label="mse = 0.0\nsamples = 1\nvalue = 141.0", fillcolor="#f5d0b6"] ;
127 -> 128 ;
129 [label="nr_of_doors <= 3.5\nmse = 205.78\nsamples = 406\nvalue = 83.92", fillcolor="#fbeee4"] ;
127 -> 129 ;
130 [label="body_Sedans <= 0.5\nmse = 307.56\nsamples = 25\nvalue = 91.23", fillcolor="#fbeade"] ;
129 -> 130 ;
131 [label="nr_of_doors <= 2.5\nmse = 113.44\nsamples = 7\nvalue = 96.25", fillcolor="#fae8da"] ;
130 -> 131 ;
132 [label="mse = 77.44\nsamples = 3\nvalue = 87.6", fillcolor="#fbece1"] ;
131 -> 132 ;
133 [label="nr_of_seats <= 4.5\nmse = 80.33\nsamples = 4\nvalue = 100.18", fillcolor="#fae5d7"] ;
131 -> 133 ;
134 [label="mse = 75.94\nsamples = 3\nvalue = 103.25", fillcolor="#f9e4d4"] ;
133 -> 134 ;
135 [label="mse = 0.0\nsamples = 1\nvalue = 92.0", fillcolor="#fbeade"] ;
133 -> 135 ;
136 [label="nr_of_doors <= 2.5\nmse = 412.89\nsamples = 18\nvalue = 87.74", fillcolor="#fbece1"] ;
130 -> 136 ;
137 [label="mse = 121.0\nsamples = 2\nvalue = 81.0", fillcolor="#fcefe7"] ;
136 -> 137 ;
138 [label="mse = 435.95\nsamples = 16\nvalue = 88.38", fillcolor="#fbece1"] ;
136 -> 138 ;
139 [label="nr_of_seats <= 4.5\nmse = 195.67\nsamples = 381\nvalue = 83.45", fillcolor="#fceee5"] ;
129 -> 139 ;
140 [label="body_Sedans <= 0.5\nmse = 225.02\nsamples = 108\nvalue = 79.87", fillcolor="#fcf0e7"] ;
139 -> 140 ;
141 [label="nr_of_doors <= 4.5\nmse = 141.48\nsamples = 51\nvalue = 78.21", fillcolor="#fcf1e9"] ;
140 -> 141 ;
142 [label="mse = 105.97\nsamples = 14\nvalue = 80.17", fillcolor="#fcf0e7"] ;
141 -> 142 ;
143 [label="mse = 152.87\nsamples = 37\nvalue = 77.48", fillcolor="#fcf1e9"] ;
141 -> 143 ;
144 [label="nr_of_doors <= 4.5\nmse = 294.31\nsamples = 57\nvalue = 81.34", fillcolor="#fcefe6"] ;
140 -> 144 ;
145 [label="mse = 107.56\nsamples = 5\nvalue = 84.67", fillcolor="#fbeee4"] ;
144 -> 145 ;
146 [label="mse = 306.1\nsamples = 52\nvalue = 81.11", fillcolor="#fcefe6"] ;
144 -> 146 ;
147 [label="body_Station wagon <= 0.5\nmse = 176.03\nsamples = 273\nvalue = 84.94", fillcolor="#fbede3"] ;
139 -> 147 ;
148 [label="nr_of_doors <= 4.5\nmse = 175.81\nsamples = 272\nvalue = 85.0", fillcolor="#fbede3"] ;
147 -> 148 ;
149 [label="body_Sedans <= 0.5\nmse = 208.11\nsamples = 58\nvalue = 85.78", fillcolor="#fbede3"] ;
148 -> 149 ;
150 [label="mse = 103.08\nsamples = 20\nvalue = 81.72", fillcolor="#fcefe6"] ;
149 -> 150 ;
151 [label="mse = 239.73\nsamples = 38\nvalue = 87.34", fillcolor="#fbece1"] ;
149 -> 151 ;
152 [label="body_Sedans <= 0.5\nmse = 167.09\nsamples = 214\nvalue = 84.8", fillcolor="#fbede3"] ;
148 -> 152 ;
153 [label="body_Compact <= 0.5\nmse = 179.81\nsamples = 93\nvalue = 85.94", fillcolor="#fbede3"] ;
152 -> 153 ;
154 [label="mse = 0.0\nsamples = 2\nvalue = 85.0", fillcolor="#fbede3"] ;
153 -> 154 ;
155 [label="mse = 182.3\nsamples = 91\nvalue = 85.95", fillcolor="#fbede3"] ;
153 -> 155 ;
156 [label="mse = 155.86\nsamples = 121\nvalue = 83.95", fillcolor="#fbeee4"] ;
152 -> 156 ;
157 [label="mse = 0.0\nsamples = 1\nvalue = 70.0", fillcolor="#fdf5f0"] ;
147 -> 157 ;
158 [label="nr_of_doors <= 2.5\nmse = 119.66\nsamples = 598\nvalue = 89.13", fillcolor="#fbebe0"] ;
102 -> 158 ;
159 [label="nr_of_seats <= 4.5\nmse = 131.25\nsamples = 5\nvalue = 117.5", fillcolor="#f8ddc9"] ;
158 -> 159 ;
160 [label="fuel_diesel <= 0.5\nmse = 150.0\nsamples = 2\nvalue = 125.0", fillcolor="#f7d9c3"] ;
159 -> 160 ;
161 [label="mse = 0.0\nsamples = 1\nvalue = 110.0", fillcolor="#f9e0cf"] ;
160 -> 161 ;
162 [label="mse = 0.0\nsamples = 1\nvalue = 135.0", fillcolor="#f6d3bb"] ;
160 -> 162 ;
163 [label="mse = 0.0\nsamples = 3\nvalue = 110.0", fillcolor="#f9e0cf"] ;
159 -> 163 ;
164 [label="fuel_gasoline <= 0.5\nmse = 110.98\nsamples = 593\nvalue = 88.83", fillcolor="#fbebe0"] ;
158 -> 164 ;
165 [label="nr_of_doors <= 4.5\nmse = 94.3\nsamples = 427\nvalue = 87.28", fillcolor="#fbece1"] ;
164 -> 165 ;
166 [label="nr_of_seats <= 4.5\nmse = 197.85\nsamples = 72\nvalue = 92.08", fillcolor="#fbeade"] ;
165 -> 166 ;
167 [label="mse = 0.0\nsamples = 5\nvalue = 85.0", fillcolor="#fbede3"] ;
166 -> 167 ;
168 [label="nr_of_doors <= 3.5\nmse = 213.96\nsamples = 67\nvalue = 92.89", fillcolor="#fbe9dd"] ;
166 -> 168 ;
169 [label="body_Sedans <= 0.5\nmse = 106.52\nsamples = 11\nvalue = 87.25", fillcolor="#fbece1"] ;
168 -> 169 ;
170 [label="mse = 0.0\nsamples = 2\nvalue = 81.0", fillcolor="#fcefe7"] ;
169 -> 170 ;
171 [label="mse = 118.45\nsamples = 9\nvalue = 88.5", fillcolor="#fbece0"] ;
169 -> 171 ;
172 [label="body_Compact <= 0.5\nmse = 224.0\nsamples = 56\nvalue = 93.68", fillcolor="#fae9dc"] ;
168 -> 172 ;
173 [label="body_Station wagon <= 0.5\nmse = 223.46\nsamples = 55\nvalue = 93.49", fillcolor="#fae9dc"] ;
172 -> 173 ;
174 [label="mse = 229.65\nsamples = 45\nvalue = 93.57", fillcolor="#fae9dc"] ;
173 -> 174 ;
175 [label="mse = 198.97\nsamples = 10\nvalue = 93.18", fillcolor="#fae9dd"] ;
173 -> 175 ;
176 [label="mse = 0.0\nsamples = 1\nvalue = 110.0", fillcolor="#f9e0cf"] ;
172 -> 176 ;
177 [label="body_Other <= 0.5\nmse = 69.43\nsamples = 355\nvalue = 86.37", fillcolor="#fbede2"] ;
165 -> 177 ;
178 [label="body_Convertible <= 0.5\nmse = 69.65\nsamples = 354\nvalue = 86.4", fillcolor="#fbede2"] ;
177 -> 178 ;
179 [label="body_Compact <= 0.5\nmse = 69.79\nsamples = 353\nvalue = 86.42", fillcolor="#fbede2"] ;
178 -> 179 ;
180 [label="fuel_lpg <= 0.5\nmse = 69.6\nsamples = 337\nvalue = 86.48", fillcolor="#fbede2"] ;
179 -> 180 ;
181 [label="body_Station wagon <= 0.5\nmse = 69.78\nsamples = 333\nvalue = 86.5", fillcolor="#fbede2"] ;
180 -> 181 ;
182 [label="mse = 68.07\nsamples = 315\nvalue = 86.46", fillcolor="#fbede2"] ;
181 -> 182 ;
183 [label="mse = 94.38\nsamples = 18\nvalue = 87.03", fillcolor="#fbece2"] ;
181 -> 183 ;
184 [label="mse = 42.19\nsamples = 4\nvalue = 84.75", fillcolor="#fbeee4"] ;
180 -> 184 ;
185 [label="mse = 71.71\nsamples = 16\nvalue = 85.23", fillcolor="#fbede3"] ;
179 -> 185 ;
186 [label="mse = 0.0\nsamples = 1\nvalue = 81.0", fillcolor="#fcefe7"] ;
178 -> 186 ;
187 [label="mse = 0.0\nsamples = 1\nvalue = 81.0", fillcolor="#fcefe7"] ;
177 -> 187 ;
188 [label="nr_of_doors <= 3.5\nmse = 131.63\nsamples = 166\nvalue = 92.67", fillcolor="#fbe9dd"] ;
164 -> 188 ;
189 [label="body_Compact <= 0.5\nmse = 130.49\nsamples = 6\nvalue = 100.29", fillcolor="#fae5d7"] ;
188 -> 189 ;
190 [label="mse = 51.84\nsamples = 5\nvalue = 106.4", fillcolor="#f9e2d2"] ;
189 -> 190 ;
191 [label="mse = 0.0\nsamples = 1\nvalue = 85.0", fillcolor="#fbede3"] ;
189 -> 191 ;
192 [label="body_Sedans <= 0.5\nmse = 130.1\nsamples = 160\nvalue = 92.47", fillcolor="#fbe9dd"] ;
188 -> 192 ;
193 [label="nr_of_doors <= 4.5\nmse = 112.28\nsamples = 26\nvalue = 91.36", fillcolor="#fbeade"] ;
192 -> 193 ;
194 [label="mse = 133.14\nsamples = 15\nvalue = 92.69", fillcolor="#fbe9dd"] ;
193 -> 194 ;
195 [label="body_Compact <= 0.5\nmse = 70.78\nsamples = 11\nvalue = 89.19", fillcolor="#fbebe0"] ;
193 -> 195 ;
196 [label="mse = 79.6\nsamples = 9\nvalue = 88.79", fillcolor="#fbebe0"] ;
195 -> 196 ;
197 [label="mse = 0.0\nsamples = 2\nvalue = 92.0", fillcolor="#fbeade"] ;
195 -> 197 ;
198 [label="nr_of_doors <= 4.5\nmse = 133.16\nsamples = 134\nvalue = 92.68", fillcolor="#fbe9dd"] ;
192 -> 198 ;
199 [label="mse = 141.7\nsamples = 21\nvalue = 92.81", fillcolor="#fbe9dd"] ;
198 -> 199 ;
200 [label="mse = 131.79\nsamples = 113\nvalue = 92.66", fillcolor="#fbe9dd"] ;
198 -> 200 ;
201 [label="model_Clio <= 0.5\nmse = 209.41\nsamples = 2433\nvalue = 75.79", fillcolor="#fcf2eb"] ;
3 -> 201 ;
202 [label="model_A1 <= 0.5\nmse = 136.52\nsamples = 1906\nvalue = 80.92", fillcolor="#fcefe7"] ;
201 -> 202 ;
203 [label="model_A3 <= 0.5\nmse = 107.86\nsamples = 1274\nvalue = 85.38", fillcolor="#fbede3"] ;
202 -> 203 ;
204 [label="body_Station wagon <= 0.5\nmse = 117.16\nsamples = 606\nvalue = 83.1", fillcolor="#fceee5"] ;
203 -> 204 ;
205 [label="nr_of_doors <= 4.5\nmse = 126.87\nsamples = 357\nvalue = 82.12", fillcolor="#fcefe6"] ;
204 -> 205 ;
206 [label="nr_of_doors <= 3.5\nmse = 165.53\nsamples = 58\nvalue = 85.78", fillcolor="#fbede3"] ;
205 -> 206 ;
207 [label="mse = 0.0\nsamples = 1\nvalue = 100.0", fillcolor="#fae6d7"] ;
206 -> 207 ;
208 [label="fuel_gasoline <= 0.5\nmse = 163.33\nsamples = 57\nvalue = 85.11", fillcolor="#fbede3"] ;
206 -> 208 ;
209 [label="body_Compact <= 0.5\nmse = 97.84\nsamples = 10\nvalue = 78.4", fillcolor="#fcf1e9"] ;
208 -> 209 ;
210 [label="body_Sedans <= 0.5\nmse = 69.12\nsamples = 9\nvalue = 76.86", fillcolor="#fcf2ea"] ;
209 -> 210 ;
211 [label="mse = 0.0\nsamples = 2\nvalue = 70.0", fillcolor="#fdf5f0"] ;
210 -> 211 ;
212 [label="mse = 70.44\nsamples = 7\nvalue = 79.6", fillcolor="#fcf0e8"] ;
210 -> 212 ;
213 [label="mse = 0.0\nsamples = 1\nvalue = 100.0", fillcolor="#fae6d7"] ;
209 -> 213 ;
214 [label="body_Other <= 0.5\nmse = 165.67\nsamples = 47\nvalue = 86.57", fillcolor="#fbede2"] ;
208 -> 214 ;
215 [label="mse = 169.7\nsamples = 45\nvalue = 86.4", fillcolor="#fbede2"] ;
214 -> 215 ;
216 [label="mse = 0.0\nsamples = 2\nvalue = 92.0", fillcolor="#fbeade"] ;
214 -> 216 ;
217 [label="body_Other <= 0.5\nmse = 115.8\nsamples = 299\nvalue = 81.38", fillcolor="#fcefe6"] ;
205 -> 217 ;
218 [label="model_Duster <= 0.5\nmse = 111.19\nsamples = 279\nvalue = 80.93", fillcolor="#fcefe7"] ;
217 -> 218 ;
219 [label="body_Sedans <= 0.5\nmse = 115.34\nsamples = 267\nvalue = 81.11", fillcolor="#fcefe6"] ;
218 -> 219 ;
220 [label="make_Audi <= 0.5\nmse = 40.04\nsamples = 52\nvalue = 82.54", fillcolor="#fcefe5"] ;
219 -> 220 ;
221 [label="fuel_gasoline <= 0.5\nmse = 41.42\nsamples = 51\nvalue = 82.44", fillcolor="#fcefe5"] ;
220 -> 221 ;
222 [label="mse = 19.26\nsamples = 34\nvalue = 82.09", fillcolor="#fcefe6"] ;
221 -> 222 ;
223 [label="mse = 99.03\nsamples = 17\nvalue = 83.35", fillcolor="#fceee5"] ;
221 -> 223 ;
224 [label="mse = 0.0\nsamples = 1\nvalue = 85.0", fillcolor="#fbede3"] ;
220 -> 224 ;
225 [label="fuel_diesel <= 0.5\nmse = 133.01\nsamples = 215\nvalue = 80.76", fillcolor="#fcf0e7"] ;
219 -> 225 ;
226 [label="fuel_gasoline <= 0.5\nmse = 162.79\nsamples = 145\nvalue = 80.81", fillcolor="#fcf0e7"] ;
225 -> 226 ;
227 [label="mse = 0.0\nsamples = 1\nvalue = 81.0", fillcolor="#fcefe7"] ;
226 -> 227 ;
228 [label="mse = 164.29\nsamples = 144\nvalue = 80.81", fillcolor="#fcf0e7"] ;
226 -> 228 ;
229 [label="mse = 63.6\nsamples = 70\nvalue = 80.63", fillcolor="#fcf0e7"] ;
225 -> 229 ;
230 [label="mse = 0.0\nsamples = 12\nvalue = 77.0", fillcolor="#fcf2ea"] ;
218 -> 230 ;
231 [label="fuel_gasoline <= 0.5\nmse = 139.31\nsamples = 20\nvalue = 87.4", fillcolor="#fbece1"] ;
217 -> 231 ;
232 [label="mse = 182.03\nsamples = 11\nvalue = 86.84", fillcolor="#fbece2"] ;
231 -> 232 ;
233 [label="mse = 64.05\nsamples = 9\nvalue = 88.36", fillcolor="#fbece1"] ;
231 -> 233 ;
234 [label="fuel_gasoline <= 0.5\nmse = 101.29\nsamples = 249\nvalue = 84.4", fillcolor="#fbeee4"] ;
204 -> 234 ;
235 [label="nr_of_seats <= 4.5\nmse = 81.37\nsamples = 181\nvalue = 84.81", fillcolor="#fbede3"] ;
234 -> 235 ;
236 [label="mse = 0.0\nsamples = 1\nvalue = 81.0", fillcolor="#fcefe7"] ;
235 -> 236 ;
237 [label="nr_of_doors <= 4.5\nmse = 81.61\nsamples = 180\nvalue = 84.83", fillcolor="#fbede3"] ;
235 -> 237 ;
238 [label="mse = 114.69\nsamples = 42\nvalue = 84.78", fillcolor="#fbede3"] ;
237 -> 238 ;
239 [label="mse = 68.47\nsamples = 138\nvalue = 84.85", fillcolor="#fbede3"] ;
237 -> 239 ;
240 [label="nr_of_doors <= 4.5\nmse = 152.34\nsamples = 68\nvalue = 83.3", fillcolor="#fceee5"] ;
234 -> 240 ;
241 [label="mse = 30.56\nsamples = 10\nvalue = 78.2", fillcolor="#fcf1e9"] ;
240 -> 241 ;
242 [label="mse = 167.12\nsamples = 58\nvalue = 84.12", fillcolor="#fbeee4"] ;
240 -> 242 ;
243 [label="fuel_gasoline <= 0.5\nmse = 91.4\nsamples = 668\nvalue = 87.36", fillcolor="#fbece1"] ;
203 -> 243 ;
244 [label="nr_of_doors <= 2.5\nmse = 78.01\nsamples = 426\nvalue = 85.67", fillcolor="#fbede3"] ;
243 -> 244 ;
245 [label="body_Sedans <= 0.5\nmse = 562.58\nsamples = 5\nvalue = 104.5", fillcolor="#f9e3d3"] ;
244 -> 245 ;
246 [label="mse = 0.0\nsamples = 1\nvalue = 85.0", fillcolor="#fbede3"] ;
245 -> 246 ;
247 [label="mse = 583.84\nsamples = 4\nvalue = 108.4", fillcolor="#f9e1d0"] ;
245 -> 247 ;
248 [label="nr_of_doors <= 4.5\nmse = 70.68\nsamples = 421\nvalue = 85.51", fillcolor="#fbede3"] ;
244 -> 248 ;
249 [label="nr_of_doors <= 3.5\nmse = 114.08\nsamples = 112\nvalue = 87.33", fillcolor="#fbece1"] ;
248 -> 249 ;
250 [label="body_Sedans <= 0.5\nmse = 3.99\nsamples = 15\nvalue = 82.93", fillcolor="#fceee5"] ;
249 -> 250 ;
251 [label="mse = 0.0\nsamples = 1\nvalue = 81.0", fillcolor="#fcefe7"] ;
250 -> 251 ;
252 [label="mse = 4.0\nsamples = 14\nvalue = 83.0", fillcolor="#fceee5"] ;
250 -> 252 ;
253 [label="body_Station wagon <= 0.5\nmse = 129.79\nsamples = 97\nvalue = 88.12", fillcolor="#fbece1"] ;
249 -> 253 ;
254 [label="mse = 128.26\nsamples = 81\nvalue = 87.94", fillcolor="#fbece1"] ;
253 -> 254 ;
255 [label="mse = 137.71\nsamples = 16\nvalue = 89.24", fillcolor="#fbebe0"] ;
253 -> 255 ;
256 [label="body_Other <= 0.5\nmse = 54.13\nsamples = 309\nvalue = 84.88", fillcolor="#fbede3"] ;
248 -> 256 ;
257 [label="body_Compact <= 0.5\nmse = 52.0\nsamples = 307\nvalue = 84.79", fillcolor="#fbede3"] ;
256 -> 257 ;
258 [label="body_Sedans <= 0.5\nmse = 37.63\nsamples = 288\nvalue = 84.56", fillcolor="#fbeee4"] ;
257 -> 258 ;
259 [label="mse = 49.02\nsamples = 31\nvalue = 85.42", fillcolor="#fbede3"] ;
258 -> 259 ;
260 [label="fuel_lpg <= 0.5\nmse = 35.97\nsamples = 257\nvalue = 84.44", fillcolor="#fbeee4"] ;
258 -> 260 ;
261 [label="mse = 36.02\nsamples = 256\nvalue = 84.45", fillcolor="#fbeee4"] ;
260 -> 261 ;
262 [label="mse = 0.0\nsamples = 1\nvalue = 81.0", fillcolor="#fcefe7"] ;
260 -> 262 ;
263 [label="mse = 259.46\nsamples = 19\nvalue = 88.39", fillcolor="#fbece1"] ;
257 -> 263 ;
264 [label="mse = 210.25\nsamples = 2\nvalue = 95.5", fillcolor="#fae8db"] ;
256 -> 264 ;
265 [label="nr_of_doors <= 2.5\nmse = 101.12\nsamples = 242\nvalue = 90.56", fillcolor="#fbeadf"] ;
243 -> 265 ;
266 [label="mse = 0.0\nsamples = 1\nvalue = 110.0", fillcolor="#f9e0cf"] ;
265 -> 266 ;
267 [label="nr_of_doors <= 4.5\nmse = 99.6\nsamples = 241\nvalue = 90.45", fillcolor="#fbebdf"] ;
265 -> 267 ;
268 [label="body_Sedans <= 0.5\nmse = 76.31\nsamples = 73\nvalue = 88.19", fillcolor="#fbece1"] ;
267 -> 268 ;
269 [label="body_Compact <= 0.5\nmse = 113.23\nsamples = 11\nvalue = 91.0", fillcolor="#fbeade"] ;
268 -> 269 ;
270 [label="mse = 122.58\nsamples = 10\nvalue = 90.92", fillcolor="#fbeade"] ;
269 -> 270 ;
271 [label="mse = 0.0\nsamples = 1\nvalue = 92.0", fillcolor="#fbeade"] ;
269 -> 271 ;
272 [label="nr_of_doors <= 3.5\nmse = 69.68\nsamples = 62\nvalue = 87.79", fillcolor="#fbece1"] ;
268 -> 272 ;
273 [label="mse = 77.61\nsamples = 6\nvalue = 87.12", fillcolor="#fbece2"] ;
272 -> 273 ;
274 [label="mse = 68.86\nsamples = 56\nvalue = 87.85", fillcolor="#fbece1"] ;
272 -> 274 ;
275 [label="nr_of_seats <= 4.5\nmse = 105.96\nsamples = 168\nvalue = 91.34", fillcolor="#fbeade"] ;
267 -> 275 ;
276 [label="mse = 156.25\nsamples = 5\nvalue = 97.5", fillcolor="#fae7d9"] ;
275 -> 276 ;
277 [label="body_Station wagon <= 0.5\nmse = 103.87\nsamples = 163\nvalue = 91.2", fillcolor="#fbeade"] ;
275 -> 277 ;
278 [label="body_Other <= 0.5\nmse = 106.12\nsamples = 134\nvalue = 91.55", fillcolor="#fbeade"] ;
277 -> 278 ;
279 [label="body_Compact <= 0.5\nmse = 106.42\nsamples = 133\nvalue = 91.58", fillcolor="#fbeade"] ;
278 -> 279 ;
280 [label="mse = 120.81\nsamples = 112\nvalue = 91.46", fillcolor="#fbeade"] ;
279 -> 280 ;
281 [label="mse = 26.31\nsamples = 21\nvalue = 92.25", fillcolor="#fbeadd"] ;
279 -> 281 ;
282 [label="mse = 0.0\nsamples = 1\nvalue = 85.0", fillcolor="#fbede3"] ;
278 -> 282 ;
283 [label="mse = 90.33\nsamples = 29\nvalue = 89.57", fillcolor="#fbebe0"] ;
277 -> 283 ;
284 [label="body_Compact <= 0.5\nmse = 78.67\nsamples = 632\nvalue = 72.27", fillcolor="#fdf4ee"] ;
202 -> 284 ;
285 [label="nr_of_doors <= 4.5\nmse = 70.52\nsamples = 385\nvalue = 71.42", fillcolor="#fdf4ee"] ;
284 -> 285 ;
286 [label="body_Station wagon <= 0.5\nmse = 37.19\nsamples = 121\nvalue = 68.6", fillcolor="#fdf6f1"] ;
285 -> 286 ;
287 [label="fuel_gasoline <= 0.5\nmse = 34.67\nsamples = 120\nvalue = 68.48", fillcolor="#fdf6f1"] ;
286 -> 287 ;
288 [label="nr_of_doors <= 3.5\nmse = 25.28\nsamples = 37\nvalue = 67.44", fillcolor="#fdf6f2"] ;
287 -> 288 ;
289 [label="mse = 57.76\nsamples = 11\nvalue = 69.8", fillcolor="#fdf5f0"] ;
288 -> 289 ;
290 [label="nr_of_seats <= 4.5\nmse = 7.68\nsamples = 26\nvalue = 66.41", fillcolor="#fdf7f2"] ;
288 -> 290 ;
291 [label="mse = 0.0\nsamples = 2\nvalue = 66.0", fillcolor="#fdf7f3"] ;
290 -> 291 ;
292 [label="mse = 8.2\nsamples = 24\nvalue = 66.44", fillcolor="#fdf7f2"] ;
290 -> 292 ;
293 [label="nr_of_seats <= 4.5\nmse = 38.4\nsamples = 83\nvalue = 68.98", fillcolor="#fdf6f0"] ;
287 -> 293 ;
294 [label="nr_of_doors <= 3.5\nmse = 38.93\nsamples = 38\nvalue = 67.32", fillcolor="#fdf7f2"] ;
293 -> 294 ;
295 [label="body_Sedans <= 0.5\nmse = 39.65\nsamples = 34\nvalue = 67.52", fillcolor="#fdf6f2"] ;
294 -> 295 ;
296 [label="mse = 0.0\nsamples = 1\nvalue = 70.0", fillcolor="#fdf5f0"] ;
295 -> 296 ;
297 [label="nr_of_doors <= 2.5\nmse = 41.76\nsamples = 33\nvalue = 67.37", fillcolor="#fdf7f2"] ;
295 -> 297 ;
298 [label="mse = 18.75\nsamples = 9\nvalue = 67.5", fillcolor="#fdf6f2"] ;
297 -> 298 ;
299 [label="mse = 49.58\nsamples = 24\nvalue = 67.32", fillcolor="#fdf7f2"] ;
297 -> 299 ;
300 [label="mse = 25.0\nsamples = 4\nvalue = 65.0", fillcolor="#fef8f4"] ;
294 -> 300 ;
301 [label="nr_of_doors <= 3.5\nmse = 31.21\nsamples = 45\nvalue = 70.85", fillcolor="#fdf5ef"] ;
293 -> 301 ;
302 [label="mse = 0.0\nsamples = 4\nvalue = 70.0", fillcolor="#fdf5f0"] ;
301 -> 302 ;
303 [label="body_Sedans <= 0.5\nmse = 34.3\nsamples = 41\nvalue = 70.93", fillcolor="#fdf5ef"] ;
301 -> 303 ;
304 [label="mse = 0.0\nsamples = 2\nvalue = 70.0", fillcolor="#fdf5f0"] ;
303 -> 304 ;
305 [label="mse = 38.07\nsamples = 39\nvalue = 71.04", fillcolor="#fdf5ef"] ;
303 -> 305 ;
306 [label="mse = 0.0\nsamples = 1\nvalue = 92.0", fillcolor="#fbeade"] ;
286 -> 306 ;
307 [label="nr_of_seats <= 4.5\nmse = 81.19\nsamples = 264\nvalue = 72.82", fillcolor="#fdf4ed"] ;
285 -> 307 ;
308 [label="fuel_diesel <= 0.5\nmse = 86.26\nsamples = 102\nvalue = 70.87", fillcolor="#fdf5ef"] ;
307 -> 308 ;
309 [label="body_Station wagon <= 0.5\nmse = 78.83\nsamples = 62\nvalue = 69.35", fillcolor="#fdf5f0"] ;
308 -> 309 ;
310 [label="mse = 78.51\nsamples = 61\nvalue = 69.62", fillcolor="#fdf5f0"] ;
309 -> 310 ;
311 [label="mse = 0.0\nsamples = 1\nvalue = 60.0", fillcolor="#fefaf8"] ;
309 -> 311 ;
312 [label="body_Other <= 0.5\nmse = 87.75\nsamples = 40\nvalue = 73.7", fillcolor="#fdf3ed"] ;
308 -> 312 ;
313 [label="body_Station wagon <= 0.5\nmse = 86.13\nsamples = 39\nvalue = 73.29", fillcolor="#fdf3ed"] ;
312 -> 313 ;
314 [label="mse = 86.73\nsamples = 38\nvalue = 73.43", fillcolor="#fdf3ed"] ;
313 -> 314 ;
315 [label="mse = 0.0\nsamples = 1\nvalue = 66.0", fillcolor="#fdf7f3"] ;
313 -> 315 ;
316 [label="mse = 0.0\nsamples = 1\nvalue = 85.0", fillcolor="#fbede3"] ;
312 -> 316 ;
317 [label="body_Other <= 0.5\nmse = 73.71\nsamples = 162\nvalue = 74.1", fillcolor="#fdf3ec"] ;
307 -> 317 ;
318 [label="body_Station wagon <= 0.5\nmse = 73.43\nsamples = 160\nvalue = 74.18", fillcolor="#fdf3ec"] ;
317 -> 318 ;
319 [label="body_Sedans <= 0.5\nmse = 73.94\nsamples = 158\nvalue = 74.28", fillcolor="#fdf3ec"] ;
318 -> 319 ;
320 [label="mse = 0.0\nsamples = 1\nvalue = 85.0", fillcolor="#fbede3"] ;
319 -> 320 ;
321 [label="fuel_diesel <= 0.5\nmse = 73.77\nsamples = 157\nvalue = 74.24", fillcolor="#fdf3ec"] ;
319 -> 321 ;
322 [label="mse = 65.04\nsamples = 104\nvalue = 74.2", fillcolor="#fdf3ec"] ;
321 -> 322 ;
323 [label="mse = 90.36\nsamples = 53\nvalue = 74.31", fillcolor="#fdf3ec"] ;
321 -> 323 ;
324 [label="fuel_diesel <= 0.5\nmse = 4.0\nsamples = 2\nvalue = 68.0", fillcolor="#fdf6f1"] ;
318 -> 324 ;
325 [label="mse = 0.0\nsamples = 1\nvalue = 70.0", fillcolor="#fdf5f0"] ;
324 -> 325 ;
326 [label="mse = 0.0\nsamples = 1\nvalue = 66.0", fillcolor="#fdf7f3"] ;
324 -> 326 ;
327 [label="mse = 25.0\nsamples = 2\nvalue = 65.0", fillcolor="#fef8f4"] ;
317 -> 327 ;
328 [label="nr_of_doors <= 2.5\nmse = 88.26\nsamples = 247\nvalue = 73.58", fillcolor="#fdf3ed"] ;
284 -> 328 ;
329 [label="nr_of_seats <= 4.5\nmse = 185.18\nsamples = 24\nvalue = 78.54", fillcolor="#fcf1e9"] ;
328 -> 329 ;
330 [label="mse = 183.51\nsamples = 22\nvalue = 79.23", fillcolor="#fcf0e8"] ;
329 -> 330 ;
331 [label="mse = 25.0\nsamples = 2\nvalue = 65.0", fillcolor="#fef8f4"] ;
329 -> 331 ;
332 [label="nr_of_doors <= 3.5\nmse = 74.26\nsamples = 223\nvalue = 73.02", fillcolor="#fdf4ed"] ;
328 -> 332 ;
333 [label="fuel_diesel <= 0.5\nmse = 52.67\nsamples = 27\nvalue = 69.31", fillcolor="#fdf6f0"] ;
332 -> 333 ;
334 [label="nr_of_seats <= 4.5\nmse = 20.6\nsamples = 20\nvalue = 67.1", fillcolor="#fdf7f2"] ;
333 -> 334 ;
335 [label="mse = 19.56\nsamples = 19\nvalue = 67.33", fillcolor="#fdf7f2"] ;
334 -> 335 ;
336 [label="mse = 0.0\nsamples = 1\nvalue = 60.0", fillcolor="#fefaf8"] ;
334 -> 336 ;
337 [label="mse = 84.61\nsamples = 7\nvalue = 77.88", fillcolor="#fcf1e9"] ;
333 -> 337 ;
338 [label="fuel_diesel <= 0.5\nmse = 75.01\nsamples = 196\nvalue = 73.46", fillcolor="#fdf3ed"] ;
332 -> 338 ;
339 [label="nr_of_seats <= 4.5\nmse = 72.7\nsamples = 137\nvalue = 74.21", fillcolor="#fdf3ec"] ;
338 -> 339 ;
340 [label="nr_of_doors <= 4.5\nmse = 76.72\nsamples = 43\nvalue = 71.33", fillcolor="#fdf4ee"] ;
339 -> 340 ;
341 [label="mse = 18.6\nsamples = 9\nvalue = 71.36", fillcolor="#fdf4ee"] ;
340 -> 341 ;
342 [label="mse = 87.2\nsamples = 34\nvalue = 71.33", fillcolor="#fdf4ee"] ;
340 -> 342 ;
343 [label="nr_of_doors <= 4.5\nmse = 65.25\nsamples = 94\nvalue = 75.54", fillcolor="#fcf2eb"] ;
339 -> 343 ;
344 [label="mse = 81.56\nsamples = 16\nvalue = 74.67", fillcolor="#fcf3ec"] ;
343 -> 344 ;
345 [label="mse = 61.14\nsamples = 78\nvalue = 75.75", fillcolor="#fcf2eb"] ;
343 -> 345 ;
346 [label="nr_of_seats <= 4.5\nmse = 75.95\nsamples = 59\nvalue = 71.69", fillcolor="#fdf4ee"] ;
338 -> 346 ;
347 [label="nr_of_doors <= 4.5\nmse = 89.25\nsamples = 25\nvalue = 74.5", fillcolor="#fcf3ec"] ;
346 -> 347 ;
348 [label="mse = 75.81\nsamples = 6\nvalue = 79.3", fillcolor="#fcf0e8"] ;
347 -> 348 ;
349 [label="mse = 82.88\nsamples = 19\nvalue = 72.79", fillcolor="#fdf4ed"] ;
347 -> 349 ;
350 [label="nr_of_doors <= 4.5\nmse = 59.02\nsamples = 34\nvalue = 69.88", fillcolor="#fdf5f0"] ;
346 -> 350 ;
351 [label="mse = 80.22\nsamples = 5\nvalue = 72.33", fillcolor="#fdf4ee"] ;
350 -> 351 ;
352 [label="mse = 55.86\nsamples = 29\nvalue = 69.6", fillcolor="#fdf5f0"] ;
350 -> 352 ;
353 [label="fuel_gasoline <= 0.5\nmse = 16.19\nsamples = 527\nvalue = 56.63", fillcolor="#fefcfa"] ;
201 -> 353 ;
354 [label="body_Station wagon <= 0.5\nmse = 26.06\nsamples = 214\nvalue = 57.92", fillcolor="#fefbf9"] ;
353 -> 354 ;
355 [label="body_Sedans <= 0.5\nmse = 19.48\nsamples = 170\nvalue = 56.78", fillcolor="#fefcfa"] ;
354 -> 355 ;
356 [label="body_Other <= 0.5\nmse = 9.31\nsamples = 50\nvalue = 56.11", fillcolor="#fefcfb"] ;
355 -> 356 ;
357 [label="body_Transporter <= 0.5\nmse = 10.86\nsamples = 43\nvalue = 56.24", fillcolor="#fefcfb"] ;
356 -> 357 ;
358 [label="nr_of_seats <= 3.5\nmse = 11.05\nsamples = 35\nvalue = 56.12", fillcolor="#fefcfb"] ;
357 -> 358 ;
359 [label="mse = 0.0\nsamples = 4\nvalue = 55.0", fillcolor="#fffdfc"] ;
358 -> 359 ;
360 [label="body_Compact <= 0.5\nmse = 12.56\nsamples = 31\nvalue = 56.29", fillcolor="#fefcfb"] ;
358 -> 360 ;
361 [label="mse = 0.0\nsamples = 2\nvalue = 55.0", fillcolor="#fffdfc"] ;
360 -> 361 ;
362 [label="mse = 13.47\nsamples = 29\nvalue = 56.4", fillcolor="#fefcfb"] ;
360 -> 362 ;
363 [label="nr_of_seats <= 3.5\nmse = 9.47\nsamples = 8\nvalue = 56.83", fillcolor="#fefcfa"] ;
357 -> 363 ;
364 [label="mse = 11.2\nsamples = 7\nvalue = 57.0", fillcolor="#fefcfa"] ;
363 -> 364 ;
365 [label="mse = 0.0\nsamples = 1\nvalue = 56.0", fillcolor="#fefcfb"] ;
363 -> 365 ;
366 [label="nr_of_seats <= 3.5\nmse = 0.24\nsamples = 7\nvalue = 55.38", fillcolor="#fffdfb"] ;
356 -> 366 ;
367 [label="mse = 0.0\nsamples = 4\nvalue = 55.0", fillcolor="#fffdfc"] ;
366 -> 367 ;
368 [label="mse = 0.0\nsamples = 3\nvalue = 56.0", fillcolor="#fefcfb"] ;
366 -> 368 ;
369 [label="nr_of_seats <= 4.5\nmse = 24.04\nsamples = 120\nvalue = 57.1", fillcolor="#fefcfa"] ;
355 -> 369 ;
370 [label="nr_of_seats <= 3.0\nmse = 12.35\nsamples = 37\nvalue = 56.27", fillcolor="#fefcfb"] ;
369 -> 370 ;
371 [label="mse = 12.78\nsamples = 35\nvalue = 56.32", fillcolor="#fefcfb"] ;
370 -> 371 ;
372 [label="mse = 0.0\nsamples = 2\nvalue = 55.0", fillcolor="#fffdfc"] ;
370 -> 372 ;
373 [label="nr_of_doors <= 4.5\nmse = 28.57\nsamples = 83\nvalue = 57.45", fillcolor="#fefcfa"] ;
369 -> 373 ;
374 [label="mse = 0.0\nsamples = 2\nvalue = 55.0", fillcolor="#fffdfc"] ;
373 -> 374 ;
375 [label="fuel_lpg <= 0.5\nmse = 29.71\nsamples = 81\nvalue = 57.57", fillcolor="#fefcfa"] ;
373 -> 375 ;
376 [label="mse = 29.12\nsamples = 74\nvalue = 57.56", fillcolor="#fefcfa"] ;
375 -> 376 ;
377 [label="mse = 34.89\nsamples = 7\nvalue = 57.67", fillcolor="#fefcfa"] ;
375 -> 377 ;
378 [label="nr_of_doors <= 4.5\nmse = 23.76\nsamples = 44\nvalue = 62.97", fillcolor="#fef9f5"] ;
354 -> 378 ;
379 [label="mse = 0.0\nsamples = 2\nvalue = 66.0", fillcolor="#fdf7f3"] ;
378 -> 379 ;
380 [label="nr_of_seats <= 4.5\nmse = 24.26\nsamples = 42\nvalue = 62.86", fillcolor="#fef9f5"] ;
378 -> 380 ;
381 [label="mse = 0.0\nsamples = 1\nvalue = 66.0", fillcolor="#fdf7f3"] ;
380 -> 381 ;
382 [label="mse = 24.51\nsamples = 41\nvalue = 62.8", fillcolor="#fef9f5"] ;
380 -> 382 ;
383 [label="body_Station wagon <= 0.5\nmse = 7.94\nsamples = 313\nvalue = 55.79", fillcolor="#fefdfb"] ;
353 -> 383 ;
384 [label="nr_of_doors <= 4.5\nmse = 8.89\nsamples = 261\nvalue = 56.04", fillcolor="#fefcfb"] ;
383 -> 384 ;
385 [label="body_Sedans <= 0.5\nmse = 0.75\nsamples = 43\nvalue = 55.41", fillcolor="#fffdfb"] ;
384 -> 385 ;
386 [label="body_Compact <= 0.5\nmse = 0.64\nsamples = 42\nvalue = 55.52", fillcolor="#fffdfb"] ;
385 -> 386 ;
387 [label="mse = 0.0\nsamples = 1\nvalue = 56.0", fillcolor="#fefcfb"] ;
386 -> 387 ;
388 [label="mse = 0.65\nsamples = 41\nvalue = 55.51", fillcolor="#fffdfb"] ;
386 -> 388 ;
389 [label="mse = 0.0\nsamples = 1\nvalue = 54.0", fillcolor="#fffdfd"] ;
385 -> 389 ;
390 [label="nr_of_seats <= 3.5\nmse = 10.5\nsamples = 218\nvalue = 56.18", fillcolor="#fefcfb"] ;
384 -> 390 ;
391 [label="body_Sedans <= 0.5\nmse = 1.0\nsamples = 4\nvalue = 55.0", fillcolor="#fffdfc"] ;
390 -> 391 ;
392 [label="mse = 0.89\nsamples = 3\nvalue = 55.33", fillcolor="#fffdfb"] ;
391 -> 392 ;
393 [label="mse = 0.0\nsamples = 1\nvalue = 54.0", fillcolor="#fffdfd"] ;
391 -> 393 ;
394 [label="body_Compact <= 0.5\nmse = 10.7\nsamples = 214\nvalue = 56.21", fillcolor="#fefcfb"] ;
390 -> 394 ;
395 [label="body_Sedans <= 0.5\nmse = 12.23\nsamples = 151\nvalue = 56.3", fillcolor="#fefcfb"] ;
394 -> 395 ;
396 [label="mse = 5.9\nsamples = 11\nvalue = 56.47", fillcolor="#fefcfb"] ;
395 -> 396 ;
397 [label="mse = 12.74\nsamples = 140\nvalue = 56.28", fillcolor="#fefcfb"] ;
395 -> 397 ;
398 [label="mse = 7.1\nsamples = 63\nvalue = 56.0", fillcolor="#fefcfb"] ;
394 -> 398 ;
399 [label="nr_of_doors <= 4.5\nmse = 0.69\nsamples = 52\nvalue = 54.44", fillcolor="#fffdfc"] ;
383 -> 399 ;
400 [label="mse = 0.36\nsamples = 21\nvalue = 54.2", fillcolor="#fffdfc"] ;
399 -> 400 ;
401 [label="mse = 0.84\nsamples = 31\nvalue = 54.6", fillcolor="#fffdfc"] ;
399 -> 401 ;
402 [label="gearing_type_Manual <= 0.5\nmse = 54.61\nsamples = 965\nvalue = 60.28", fillcolor="#fefaf7"] ;
2 -> 402 ;
403 [label="fuel_gasoline <= 0.5\nmse = 2.47\nsamples = 397\nvalue = 65.89", fillcolor="#fdf7f3"] ;
402 -> 403 ;
404 [label="body_Compact <= 0.5\nmse = 0.14\nsamples = 6\nvalue = 70.17", fillcolor="#fdf5ef"] ;
403 -> 404 ;
405 [label="mse = 0.0\nsamples = 3\nvalue = 70.0", fillcolor="#fdf5f0"] ;
404 -> 405 ;
406 [label="nr_of_doors <= 4.0\nmse = 0.22\nsamples = 3\nvalue = 70.33", fillcolor="#fdf5ef"] ;
404 -> 406 ;
407 [label="mse = 0.0\nsamples = 2\nvalue = 70.0", fillcolor="#fdf5f0"] ;
406 -> 407 ;
408 [label="mse = 0.0\nsamples = 1\nvalue = 71.0", fillcolor="#fdf5ef"] ;
406 -> 408 ;
409 [label="gearing_type_Semi-automatic <= 0.5\nmse = 2.31\nsamples = 391\nvalue = 65.85", fillcolor="#fdf7f3"] ;
403 -> 409 ;
410 [label="nr_of_doors <= 4.5\nmse = 1.25\nsamples = 368\nvalue = 65.93", fillcolor="#fdf7f3"] ;
409 -> 410 ;
411 [label="mse = 0.0\nsamples = 130\nvalue = 66.0", fillcolor="#fdf7f3"] ;
410 -> 411 ;
412 [label="body_Compact <= 0.5\nmse = 1.93\nsamples = 238\nvalue = 65.9", fillcolor="#fdf7f3"] ;
410 -> 412 ;
413 [label="mse = 0.0\nsamples = 76\nvalue = 66.0", fillcolor="#fdf7f3"] ;
412 -> 413 ;
414 [label="mse = 2.81\nsamples = 162\nvalue = 65.85", fillcolor="#fdf7f3"] ;
412 -> 414 ;
415 [label="nr_of_doors <= 3.5\nmse = 17.03\nsamples = 23\nvalue = 64.5", fillcolor="#fef8f4"] ;
409 -> 415 ;
416 [label="body_Compact <= 0.5\nmse = 56.25\nsamples = 3\nvalue = 58.5", fillcolor="#fefbf9"] ;
415 -> 416 ;
417 [label="mse = 50.0\nsamples = 2\nvalue = 56.0", fillcolor="#fefcfb"] ;
416 -> 417 ;
418 [label="mse = 0.0\nsamples = 1\nvalue = 66.0", fillcolor="#fdf7f3"] ;
416 -> 418 ;
419 [label="body_Sedans <= 0.5\nmse = 7.06\nsamples = 20\nvalue = 65.25", fillcolor="#fdf8f3"] ;
415 -> 419 ;
420 [label="nr_of_doors <= 4.5\nmse = 0.11\nsamples = 10\nvalue = 65.88", fillcolor="#fdf7f3"] ;
419 -> 420 ;
421 [label="mse = 0.0\nsamples = 1\nvalue = 66.0", fillcolor="#fdf7f3"] ;
420 -> 421 ;
422 [label="mse = 0.12\nsamples = 9\nvalue = 65.87", fillcolor="#fdf7f3"] ;
420 -> 422 ;
423 [label="nr_of_doors <= 4.5\nmse = 13.23\nsamples = 10\nvalue = 64.62", fillcolor="#fef8f4"] ;
419 -> 423 ;
424 [label="mse = 0.0\nsamples = 1\nvalue = 66.0", fillcolor="#fdf7f3"] ;
423 -> 424 ;
425 [label="mse = 13.98\nsamples = 9\nvalue = 64.53", fillcolor="#fef8f4"] ;
423 -> 425 ;
426 [label="body_Other <= 0.5\nmse = 54.12\nsamples = 568\nvalue = 56.47", fillcolor="#fefcfb"] ;
402 -> 426 ;
427 [label="nr_of_doors <= 3.5\nmse = 51.57\nsamples = 540\nvalue = 55.99", fillcolor="#fefcfb"] ;
426 -> 427 ;
428 [label="nr_of_doors <= 2.5\nmse = 50.26\nsamples = 219\nvalue = 54.29", fillcolor="#fffdfc"] ;
427 -> 428 ;
429 [label="fuel_diesel <= 0.5\nmse = 75.09\nsamples = 35\nvalue = 58.58", fillcolor="#fefbf9"] ;
428 -> 429 ;
430 [label="mse = 79.56\nsamples = 32\nvalue = 58.84", fillcolor="#fefbf9"] ;
429 -> 430 ;
431 [label="mse = 0.0\nsamples = 3\nvalue = 55.0", fillcolor="#fffdfc"] ;
429 -> 431 ;
432 [label="body_Coupe <= 0.5\nmse = 40.95\nsamples = 184\nvalue = 53.44", fillcolor="#fffefd"] ;
428 -> 432 ;
433 [label="fuel_gasoline <= 0.5\nmse = 28.31\nsamples = 179\nvalue = 53.0", fillcolor="#fffefd"] ;
432 -> 433 ;
434 [label="body_Compact <= 0.5\nmse = 50.67\nsamples = 13\nvalue = 59.32", fillcolor="#fefbf8"] ;
433 -> 434 ;
435 [label="body_Transporter <= 0.5\nmse = 30.56\nsamples = 7\nvalue = 56.67", fillcolor="#fefcfa"] ;
434 -> 435 ;
436 [label="mse = 39.51\nsamples = 5\nvalue = 57.22", fillcolor="#fefcfa"] ;
435 -> 436 ;
437 [label="mse = 0.0\nsamples = 2\nvalue = 55.0", fillcolor="#fffdfc"] ;
435 -> 437 ;
438 [label="mse = 56.25\nsamples = 6\nvalue = 62.5", fillcolor="#fef9f6"] ;
434 -> 438 ;
439 [label="body_Compact <= 0.5\nmse = 22.85\nsamples = 166\nvalue = 52.48", fillcolor="#fffefe"] ;
433 -> 439 ;
440 [label="mse = 25.36\nsamples = 52\nvalue = 53.26", fillcolor="#fffefd"] ;
439 -> 440 ;
441 [label="mse = 21.46\nsamples = 114\nvalue = 52.16", fillcolor="#fffefe"] ;
439 -> 441 ;
442 [label="fuel_diesel <= 0.5\nmse = 235.24\nsamples = 5\nvalue = 64.82", fillcolor="#fef8f4"] ;
432 -> 442 ;
443 [label="mse = 283.1\nsamples = 3\nvalue = 70.43", fillcolor="#fdf5ef"] ;
442 -> 443 ;
444 [label="mse = 0.0\nsamples = 2\nvalue = 55.0", fillcolor="#fffdfc"] ;
442 -> 444 ;
445 [label="body_Compact <= 0.5\nmse = 48.99\nsamples = 321\nvalue = 57.2", fillcolor="#fefcfa"] ;
427 -> 445 ;
446 [label="fuel_lpg <= 0.5\nmse = 35.49\nsamples = 203\nvalue = 55.08", fillcolor="#fffdfc"] ;
445 -> 446 ;
447 [label="fuel_gasoline <= 0.5\nmse = 34.12\nsamples = 201\nvalue = 54.9", fillcolor="#fffdfc"] ;
446 -> 447 ;
448 [label="mse = 38.84\nsamples = 31\nvalue = 57.31", fillcolor="#fefcfa"] ;
447 -> 448 ;
449 [label="body_Off-Road <= 0.5\nmse = 32.0\nsamples = 170\nvalue = 54.46", fillcolor="#fffdfc"] ;
447 -> 449 ;
450 [label="body_Transporter <= 0.5\nmse = 31.61\nsamples = 169\nvalue = 54.42", fillcolor="#fffdfc"] ;
449 -> 450 ;
451 [label="mse = 31.76\nsamples = 167\nvalue = 54.44", fillcolor="#fffdfc"] ;
450 -> 451 ;
452 [label="mse = 0.0\nsamples = 2\nvalue = 51.0", fillcolor="#ffffff"] ;
450 -> 452 ;
453 [label="mse = 0.0\nsamples = 1\nvalue = 66.0", fillcolor="#fdf7f3"] ;
449 -> 453 ;
454 [label="mse = 0.0\nsamples = 2\nvalue = 66.0", fillcolor="#fdf7f3"] ;
446 -> 454 ;
455 [label="nr_of_doors <= 4.5\nmse = 51.05\nsamples = 118\nvalue = 60.88", fillcolor="#fefaf7"] ;
445 -> 455 ;
456 [label="nr_of_seats <= 4.5\nmse = 39.29\nsamples = 46\nvalue = 62.59", fillcolor="#fef9f6"] ;
455 -> 456 ;
457 [label="mse = 0.0\nsamples = 1\nvalue = 51.0", fillcolor="#ffffff"] ;
456 -> 457 ;
458 [label="fuel_gasoline <= 0.5\nmse = 35.16\nsamples = 45\nvalue = 63.07", fillcolor="#fef9f5"] ;
456 -> 458 ;
459 [label="mse = 0.0\nsamples = 3\nvalue = 70.0", fillcolor="#fdf5f0"] ;
458 -> 459 ;
460 [label="mse = 33.95\nsamples = 42\nvalue = 62.56", fillcolor="#fef9f6"] ;
458 -> 460 ;
461 [label="fuel_gasoline <= 0.5\nmse = 55.87\nsamples = 72\nvalue = 59.65", fillcolor="#fefbf8"] ;
455 -> 461 ;
462 [label="mse = 67.15\nsamples = 14\nvalue = 59.05", fillcolor="#fefbf8"] ;
461 -> 462 ;
463 [label="mse = 53.14\nsamples = 58\nvalue = 59.79", fillcolor="#fefaf8"] ;
461 -> 463 ;
464 [label="nr_of_doors <= 4.0\nmse = 2.9\nsamples = 28\nvalue = 66.38", fillcolor="#fdf7f2"] ;
426 -> 464 ;
465 [label="mse = 0.0\nsamples = 1\nvalue = 66.0", fillcolor="#fdf7f3"] ;
464 -> 465 ;
466 [label="mse = 2.97\nsamples = 27\nvalue = 66.39", fillcolor="#fdf7f2"] ;
464 -> 466 ;
467 [label="fuel_diesel <= 0.5\nmse = 459.39\nsamples = 416\nvalue = 129.83", fillcolor="#f7d6bf"] ;
1 -> 467 ;
468 [label="nr_of_doors <= 4.5\nmse = 83.78\nsamples = 117\nvalue = 159.75", fillcolor="#f3c7a6"] ;
467 -> 468 ;
469 [label="body_Coupe <= 0.5\nmse = 79.73\nsamples = 21\nvalue = 154.88", fillcolor="#f4c9aa"] ;
468 -> 469 ;
470 [label="body_Station wagon <= 0.5\nmse = 76.28\nsamples = 20\nvalue = 153.83", fillcolor="#f4caab"] ;
469 -> 470 ;
471 [label="gearing_type_Automatic <= 0.5\nmse = 74.39\nsamples = 19\nvalue = 153.43", fillcolor="#f4caac"] ;
470 -> 471 ;
472 [label="mse = 0.0\nsamples = 1\nvalue = 147.0", fillcolor="#f5cdb1"] ;
471 -> 472 ;
473 [label="body_Van <= 0.5\nmse = 75.56\nsamples = 18\nvalue = 153.67", fillcolor="#f4caab"] ;
471 -> 473 ;
474 [label="mse = 0.0\nsamples = 1\nvalue = 147.0", fillcolor="#f5cdb1"] ;
473 -> 474 ;
475 [label="nr_of_seats <= 6.0\nmse = 76.69\nsamples = 17\nvalue = 153.92", fillcolor="#f4caab"] ;
473 -> 475 ;
476 [label="mse = 72.0\nsamples = 2\nvalue = 153.0", fillcolor="#f4caac"] ;
475 -> 476 ;
477 [label="mse = 77.17\nsamples = 15\nvalue = 154.04", fillcolor="#f4caab"] ;
475 -> 477 ;
478 [label="mse = 0.0\nsamples = 1\nvalue = 165.0", fillcolor="#f3c4a2"] ;
470 -> 478 ;
479 [label="mse = 0.0\nsamples = 1\nvalue = 165.0", fillcolor="#f3c4a2"] ;
469 -> 479 ;
480 [label="nr_of_seats <= 6.0\nmse = 78.31\nsamples = 96\nvalue = 160.82", fillcolor="#f3c6a6"] ;
468 -> 480 ;
481 [label="body_Van <= 0.5\nmse = 100.3\nsamples = 62\nvalue = 159.6", fillcolor="#f3c7a7"] ;
480 -> 481 ;
482 [label="gearing_type_Manual <= 0.5\nmse = 81.0\nsamples = 13\nvalue = 156.0", fillcolor="#f4c9a9"] ;
481 -> 482 ;
483 [label="body_Transporter <= 0.5\nmse = 80.78\nsamples = 12\nvalue = 156.47", fillcolor="#f4c8a9"] ;
482 -> 483 ;
484 [label="body_Station wagon <= 0.5\nmse = 80.0\nsamples = 11\nvalue = 157.0", fillcolor="#f4c8a9"] ;
483 -> 484 ;
485 [label="mse = 77.76\nsamples = 3\nvalue = 157.8", fillcolor="#f4c8a8"] ;
484 -> 485 ;
486 [label="mse = 80.52\nsamples = 8\nvalue = 156.69", fillcolor="#f4c8a9"] ;
484 -> 486 ;
487 [label="mse = 0.0\nsamples = 1\nvalue = 147.0", fillcolor="#f5cdb1"] ;
483 -> 487 ;
488 [label="mse = 0.0\nsamples = 1\nvalue = 147.0", fillcolor="#f5cdb1"] ;
482 -> 488 ;
489 [label="gearing_type_Automatic <= 0.5\nmse = 101.06\nsamples = 49\nvalue = 160.59", fillcolor="#f3c6a6"] ;
481 -> 489 ;
490 [label="mse = 0.0\nsamples = 1\nvalue = 165.0", fillcolor="#f3c4a2"] ;
489 -> 490 ;
491 [label="mse = 102.19\nsamples = 48\nvalue = 160.53", fillcolor="#f3c6a6"] ;
489 -> 491 ;
492 [label="body_Station wagon <= 0.5\nmse = 32.53\nsamples = 34\nvalue = 162.96", fillcolor="#f3c5a4"] ;
480 -> 492 ;
493 [label="mse = 35.44\nsamples = 30\nvalue = 162.75", fillcolor="#f3c5a4"] ;
492 -> 493 ;
494 [label="mse = 0.0\nsamples = 4\nvalue = 165.0", fillcolor="#f3c4a2"] ;
492 -> 494 ;
495 [label="gearing_type_Manual <= 0.5\nmse = 121.99\nsamples = 299\nvalue = 118.19", fillcolor="#f8dcc8"] ;
467 -> 495 ;
496 [label="body_Transporter <= 0.5\nmse = 72.72\nsamples = 264\nvalue = 120.82", fillcolor="#f8dbc6"] ;
495 -> 496 ;
497 [label="body_Sedans <= 0.5\nmse = 76.23\nsamples = 247\nvalue = 120.97", fillcolor="#f8dbc6"] ;
496 -> 497 ;
498 [label="body_Station wagon <= 0.5\nmse = 77.48\nsamples = 242\nvalue = 121.02", fillcolor="#f8dbc6"] ;
497 -> 498 ;
499 [label="body_Van <= 0.5\nmse = 74.51\nsamples = 214\nvalue = 120.9", fillcolor="#f8dbc6"] ;
498 -> 499 ;
500 [label="mse = 0.0\nsamples = 3\nvalue = 118.0", fillcolor="#f8dcc8"] ;
499 -> 500 ;
501 [label="nr_of_seats <= 6.0\nmse = 75.31\nsamples = 211\nvalue = 120.94", fillcolor="#f8dbc6"] ;
499 -> 501 ;
502 [label="nr_of_doors <= 4.5\nmse = 70.01\nsamples = 129\nvalue = 120.75", fillcolor="#f8dbc6"] ;
501 -> 502 ;
503 [label="mse = 109.48\nsamples = 7\nvalue = 122.46", fillcolor="#f7dac5"] ;
502 -> 503 ;
504 [label="nr_of_doors <= 6.0\nmse = 67.13\nsamples = 122\nvalue = 120.63", fillcolor="#f8dbc6"] ;
502 -> 504 ;
505 [label="gearing_type_Automatic <= 0.5\nmse = 67.44\nsamples = 121\nvalue = 120.64", fillcolor="#f8dbc6"] ;
504 -> 505 ;
506 [label="mse = 77.43\nsamples = 5\nvalue = 121.11", fillcolor="#f7dbc6"] ;
505 -> 506 ;
507 [label="mse = 66.94\nsamples = 116\nvalue = 120.62", fillcolor="#f8dbc6"] ;
505 -> 507 ;
508 [label="mse = 0.0\nsamples = 1\nvalue = 118.0", fillcolor="#f8dcc8"] ;
504 -> 508 ;
509 [label="nr_of_doors <= 4.5\nmse = 83.83\nsamples = 82\nvalue = 121.25", fillcolor="#f7dbc6"] ;
501 -> 509 ;
510 [label="mse = 0.0\nsamples = 7\nvalue = 118.0", fillcolor="#f8dcc8"] ;
509 -> 510 ;
511 [label="gearing_type_Semi-automatic <= 0.5\nmse = 90.81\nsamples = 75\nvalue = 121.56", fillcolor="#f7dac6"] ;
509 -> 511 ;
512 [label="mse = 93.63\nsamples = 72\nvalue = 121.69", fillcolor="#f7dac5"] ;
511 -> 512 ;
513 [label="mse = 0.0\nsamples = 3\nvalue = 118.0", fillcolor="#f8dcc8"] ;
511 -> 513 ;
514 [label="nr_of_seats <= 6.5\nmse = 99.04\nsamples = 28\nvalue = 121.95", fillcolor="#f7dac5"] ;
498 -> 514 ;
515 [label="nr_of_seats <= 5.5\nmse = 119.46\nsamples = 22\nvalue = 122.97", fillcolor="#f7dac4"] ;
514 -> 515 ;
516 [label="nr_of_doors <= 4.5\nmse = 89.58\nsamples = 21\nvalue = 121.52", fillcolor="#f7dac6"] ;
515 -> 516 ;
517 [label="mse = 157.69\nsamples = 2\nvalue = 125.25", fillcolor="#f7d8c2"] ;
516 -> 517 ;
518 [label="mse = 78.0\nsamples = 19\nvalue = 121.0", fillcolor="#f8dbc6"] ;
516 -> 518 ;
519 [label="mse = 0.0\nsamples = 1\nvalue = 147.0", fillcolor="#f5cdb1"] ;
515 -> 519 ;
520 [label="mse = 0.0\nsamples = 6\nvalue = 118.0", fillcolor="#f8dcc8"] ;
514 -> 520 ;
521 [label="mse = 0.0\nsamples = 5\nvalue = 118.0", fillcolor="#f8dcc8"] ;
497 -> 521 ;
522 [label="mse = 0.0\nsamples = 17\nvalue = 118.0", fillcolor="#f8dcc8"] ;
496 -> 522 ;
523 [label="body_Station wagon <= 0.5\nmse = 34.31\nsamples = 35\nvalue = 97.73", fillcolor="#fae7d9"] ;
495 -> 523 ;
524 [label="nr_of_seats <= 6.0\nmse = 10.12\nsamples = 33\nvalue = 96.51", fillcolor="#fae7da"] ;
523 -> 524 ;
525 [label="body_Transporter <= 0.5\nmse = 15.63\nsamples = 23\nvalue = 96.8", fillcolor="#fae7da"] ;
524 -> 525 ;
526 [label="nr_of_doors <= 4.5\nmse = 16.69\nsamples = 21\nvalue = 96.86", fillcolor="#fae7da"] ;
525 -> 526 ;
527 [label="mse = 0.0\nsamples = 1\nvalue = 96.0", fillcolor="#fae8da"] ;
526 -> 527 ;
528 [label="mse = 17.28\nsamples = 20\nvalue = 96.89", fillcolor="#fae7da"] ;
526 -> 528 ;
529 [label="mse = 0.0\nsamples = 2\nvalue = 96.0", fillcolor="#fae8da"] ;
525 -> 529 ;
530 [label="mse = 0.0\nsamples = 10\nvalue = 96.0", fillcolor="#fae8da"] ;
524 -> 530 ;
531 [label="nr_of_seats <= 6.0\nmse = 116.16\nsamples = 2\nvalue = 109.2", fillcolor="#f9e1d0"] ;
523 -> 531 ;
532 [label="mse = 0.0\nsamples = 1\nvalue = 96.0", fillcolor="#fae8da"] ;
531 -> 532 ;
533 [label="mse = 0.0\nsamples = 1\nvalue = 118.0", fillcolor="#f8dcc8"] ;
531 -> 533 ;
534 [label="gearing_type_Automatic <= 0.5\nmse = 286.48\nsamples = 1182\nvalue = 114.92", fillcolor="#f8decb"] ;
0 -> 534 [labeldistance=2.5, labelangle=-45, headlabel="False"] ;
535 [label="fuel_diesel <= 0.5\nmse = 206.73\nsamples = 586\nvalue = 108.62", fillcolor="#f9e1d0"] ;
534 -> 535 ;
536 [label="body_Sedans <= 0.5\nmse = 191.87\nsamples = 221\nvalue = 115.75", fillcolor="#f8ddca"] ;
535 -> 536 ;
537 [label="body_Compact <= 0.5\nmse = 191.99\nsamples = 123\nvalue = 118.15", fillcolor="#f8dcc8"] ;
536 -> 537 ;
538 [label="nr_of_doors <= 4.5\nmse = 186.12\nsamples = 121\nvalue = 117.83", fillcolor="#f8dcc9"] ;
537 -> 538 ;
539 [label="mse = 194.8\nsamples = 51\nvalue = 119.73", fillcolor="#f8dbc7"] ;
538 -> 539 ;
540 [label="body_Other <= 0.5\nmse = 173.48\nsamples = 70\nvalue = 116.26", fillcolor="#f8ddca"] ;
538 -> 540 ;
541 [label="body_Station wagon <= 0.5\nmse = 173.37\nsamples = 69\nvalue = 116.52", fillcolor="#f8ddca"] ;
540 -> 541 ;
542 [label="body_Van <= 0.5\nmse = 0.25\nsamples = 2\nvalue = 121.5", fillcolor="#f7dac6"] ;
541 -> 542 ;
543 [label="mse = 0.0\nsamples = 1\nvalue = 122.0", fillcolor="#f7dac5"] ;
542 -> 543 ;
544 [label="mse = 0.0\nsamples = 1\nvalue = 121.0", fillcolor="#f8dbc6"] ;
542 -> 544 ;
545 [label="mse = 176.32\nsamples = 67\nvalue = 116.42", fillcolor="#f8ddca"] ;
541 -> 545 ;
546 [label="mse = 0.0\nsamples = 1\nvalue = 103.0", fillcolor="#f9e4d5"] ;
540 -> 546 ;
547 [label="mse = 150.22\nsamples = 2\nvalue = 138.33", fillcolor="#f6d2b8"] ;
537 -> 547 ;
548 [label="nr_of_doors <= 4.5\nmse = 172.77\nsamples = 98\nvalue = 112.44", fillcolor="#f8dfcd"] ;
536 -> 548 ;
549 [label="mse = 283.51\nsamples = 27\nvalue = 117.51", fillcolor="#f8ddc9"] ;
548 -> 549 ;
550 [label="mse = 124.4\nsamples = 71\nvalue = 110.74", fillcolor="#f9e0ce"] ;
548 -> 550 ;
551 [label="nr_of_doors <= 4.5\nmse = 169.51\nsamples = 365\nvalue = 104.54", fillcolor="#f9e3d3"] ;
535 -> 551 ;
552 [label="body_Station wagon <= 0.5\nmse = 249.3\nsamples = 99\nvalue = 108.59", fillcolor="#f9e1d0"] ;
551 -> 552 ;
553 [label="body_Coupe <= 0.5\nmse = 202.18\nsamples = 48\nvalue = 105.29", fillcolor="#f9e3d3"] ;
552 -> 553 ;
554 [label="body_Sedans <= 0.5\nmse = 197.18\nsamples = 47\nvalue = 105.59", fillcolor="#f9e3d3"] ;
553 -> 554 ;
555 [label="mse = 0.0\nsamples = 1\nvalue = 103.0", fillcolor="#f9e4d5"] ;
554 -> 555 ;
556 [label="mse = 202.12\nsamples = 46\nvalue = 105.66", fillcolor="#f9e3d2"] ;
554 -> 556 ;
557 [label="mse = 0.0\nsamples = 1\nvalue = 81.0", fillcolor="#fcefe7"] ;
553 -> 557 ;
558 [label="mse = 275.56\nsamples = 51\nvalue = 112.11", fillcolor="#f8dfcd"] ;
552 -> 558 ;
559 [label="body_Station wagon <= 0.5\nmse = 132.44\nsamples = 266\nvalue = 103.07", fillcolor="#f9e4d5"] ;
551 -> 559 ;
560 [label="body_Off-Road <= 0.5\nmse = 70.1\nsamples = 132\nvalue = 101.2", fillcolor="#fae5d6"] ;
559 -> 560 ;
561 [label="body_Sedans <= 0.5\nmse = 67.77\nsamples = 131\nvalue = 101.09", fillcolor="#fae5d6"] ;
560 -> 561 ;
562 [label="body_Compact <= 0.5\nmse = 17.84\nsamples = 20\nvalue = 100.74", fillcolor="#fae5d6"] ;
561 -> 562 ;
563 [label="mse = 19.51\nsamples = 18\nvalue = 100.81", fillcolor="#fae5d6"] ;
562 -> 563 ;
564 [label="mse = 0.0\nsamples = 2\nvalue = 100.0", fillcolor="#fae6d7"] ;
562 -> 564 ;
565 [label="mse = 77.18\nsamples = 111\nvalue = 101.16", fillcolor="#fae5d6"] ;
561 -> 565 ;
566 [label="mse = 0.0\nsamples = 1\nvalue = 125.0", fillcolor="#f7d9c3"] ;
560 -> 566 ;
567 [label="mse = 188.52\nsamples = 134\nvalue = 104.97", fillcolor="#f9e3d3"] ;
559 -> 567 ;
568 [label="fuel_diesel <= 0.5\nmse = 288.98\nsamples = 596\nvalue = 120.85", fillcolor="#f8dbc6"] ;
534 -> 568 ;
569 [label="body_Station wagon <= 0.5\nmse = 254.26\nsamples = 189\nvalue = 130.94", fillcolor="#f6d6be"] ;
568 -> 569 ;
570 [label="nr_of_doors <= 4.5\nmse = 191.9\nsamples = 52\nvalue = 127.87", fillcolor="#f7d7c0"] ;
569 -> 570 ;
571 [label="mse = 150.94\nsamples = 15\nvalue = 130.68", fillcolor="#f6d6be"] ;
570 -> 571 ;
572 [label="body_Sedans <= 0.5\nmse = 202.71\nsamples = 37\nvalue = 126.87", fillcolor="#f7d8c1"] ;
570 -> 572 ;
573 [label="mse = 0.0\nsamples = 2\nvalue = 121.0", fillcolor="#f8dbc6"] ;
572 -> 573 ;
574 [label="mse = 210.18\nsamples = 35\nvalue = 127.13", fillcolor="#f7d8c1"] ;
572 -> 574 ;
575 [label="nr_of_doors <= 4.5\nmse = 275.03\nsamples = 137\nvalue = 132.24", fillcolor="#f6d5bd"] ;
569 -> 575 ;
576 [label="mse = 381.39\nsamples = 45\nvalue = 134.52", fillcolor="#f6d4bb"] ;
575 -> 576 ;
577 [label="nr_of_seats <= 4.5\nmse = 215.17\nsamples = 92\nvalue = 131.05", fillcolor="#f6d5be"] ;
575 -> 577 ;
578 [label="mse = 0.0\nsamples = 1\nvalue = 147.0", fillcolor="#f5cdb1"] ;
577 -> 578 ;
579 [label="mse = 214.89\nsamples = 91\nvalue = 130.94", fillcolor="#f6d6be"] ;
577 -> 579 ;
580 [label="nr_of_doors <= 4.5\nmse = 232.02\nsamples = 407\nvalue = 115.93", fillcolor="#f8ddca"] ;
568 -> 580 ;
581 [label="body_Sedans <= 0.5\nmse = 286.61\nsamples = 103\nvalue = 120.08", fillcolor="#f8dbc7"] ;
580 -> 581 ;
582 [label="mse = 232.9\nsamples = 72\nvalue = 121.44", fillcolor="#f7dac6"] ;
581 -> 582 ;
583 [label="mse = 390.93\nsamples = 31\nvalue = 117.11", fillcolor="#f8ddc9"] ;
581 -> 583 ;
584 [label="body_Off-Road <= 0.5\nmse = 203.47\nsamples = 304\nvalue = 114.41", fillcolor="#f8decb"] ;
580 -> 584 ;
585 [label="body_Station wagon <= 0.5\nmse = 197.55\nsamples = 302\nvalue = 114.22", fillcolor="#f8decb"] ;
584 -> 585 ;
586 [label="body_Other <= 0.5\nmse = 230.14\nsamples = 85\nvalue = 111.17", fillcolor="#f9e0ce"] ;
585 -> 586 ;
587 [label="body_Compact <= 0.5\nmse = 231.74\nsamples = 84\nvalue = 111.34", fillcolor="#f9e0ce"] ;
586 -> 587 ;
588 [label="mse = 232.09\nsamples = 83\nvalue = 111.23", fillcolor="#f9e0ce"] ;
587 -> 588 ;
589 [label="mse = 0.0\nsamples = 1\nvalue = 125.0", fillcolor="#f7d9c3"] ;
587 -> 589 ;
590 [label="mse = 0.0\nsamples = 1\nvalue = 100.0", fillcolor="#fae6d7"] ;
586 -> 590 ;
591 [label="mse = 180.31\nsamples = 217\nvalue = 115.37", fillcolor="#f8decb"] ;
585 -> 591 ;
592 [label="mse = 200.0\nsamples = 2\nvalue = 145.0", fillcolor="#f5ceb2"] ;
584 -> 592 ;
}